<?xml version="1.0"?>
<opencv_storage>
<cascade>
  <stageType>BOOST</stageType>
  <featureType>HAAR</featureType>
  <height>32</height>
  <width>32</width>
  <stageParams>
    <boostType>GAB</boostType>
    <minHitRate>9.9500000476837158e-01</minHitRate>
    <maxFalseAlarm>5.0000000000000000e-01</maxFalseAlarm>
    <weightTrimRate>9.4999998807907104e-01</weightTrimRate>
    <maxDepth>1</maxDepth>
    <maxWeakCount>100</maxWeakCount></stageParams>
  <featureParams>
    <maxCatCount>0</maxCatCount>
    <featSize>1</featSize>
    <mode>BASIC</mode></featureParams>
  <stageNum>11</stageNum>
  <stages>
    <!-- stage 0 -->
    <_>
      <maxWeakCount>3</maxWeakCount>
      <stageThreshold>-1.3500601053237915e+00</stageThreshold>
      <weakClassifiers>
        <_>
          <internalNodes>
            0 -1 32 -2.4308219552040100e-02</internalNodes>
          <leafValues>
            5.7142859697341919e-01 -9.8210734128952026e-01</leafValues></_>
        <_>
          <internalNodes>
            0 -1 11 1.7025761306285858e-02</internalNodes>
          <leafValues>
            -9.1710120439529419e-01 8.5057675838470459e-01</leafValues></_>
        <_>
          <internalNodes>
            0 -1 27 3.0159489251673222e-03</internalNodes>
          <leafValues>
            -9.2714941501617432e-01 5.4914844036102295e-01</leafValues></_></weakClassifiers></_>
    <!-- stage 1 -->
    <_>
      <maxWeakCount>4</maxWeakCount>
      <stageThreshold>-1.9601408243179321e+00</stageThreshold>
      <weakClassifiers>
        <_>
          <internalNodes>
            0 -1 20 -9.7838155925273895e-02</internalNodes>
          <leafValues>
            7.5000000000000000e-01 -9.7430831193923950e-01</leafValues></_>
        <_>
          <internalNodes>
            0 -1 3 4.8184400796890259e-01</internalNodes>
          <leafValues>
            -9.0468484163284302e-01 5.8980345726013184e-01</leafValues></_>
        <_>
          <internalNodes>
            0 -1 16 3.5817995667457581e-02</internalNodes>
          <leafValues>
            -7.5235366821289063e-01 6.1357468366622925e-01</leafValues></_>
        <_>
          <internalNodes>
            0 -1 14 7.1727305650711060e-02</internalNodes>
          <leafValues>
            -6.7649358510971069e-01 6.7120593786239624e-01</leafValues></_></weakClassifiers></_>
    <!-- stage 2 -->
    <_>
      <maxWeakCount>4</maxWeakCount>
      <stageThreshold>-2.2192716598510742e+00</stageThreshold>
      <weakClassifiers>
        <_>
          <internalNodes>
            0 -1 1 -1.1859312653541565e-01</internalNodes>
          <leafValues>
            7.1428573131561279e-01 -9.7235929965972900e-01</leafValues></_>
        <_>
          <internalNodes>
            0 -1 36 -1.3299850746989250e-02</internalNodes>
          <leafValues>
            5.3773194551467896e-01 -8.8156181573867798e-01</leafValues></_>
        <_>
          <internalNodes>
            0 -1 28 4.4785714708268642e-03</internalNodes>
          <leafValues>
            -8.0357193946838379e-01 5.0781315565109253e-01</leafValues></_>
        <_>
          <internalNodes>
            0 -1 30 1.2824807781726122e-03</internalNodes>
          <leafValues>
            -8.7316364049911499e-01 4.5810097455978394e-01</leafValues></_></weakClassifiers></_>
    <!-- stage 3 -->
    <_>
      <maxWeakCount>4</maxWeakCount>
      <stageThreshold>-1.6497186422348022e+00</stageThreshold>
      <weakClassifiers>
        <_>
          <internalNodes>
            0 -1 23 1.6934493556618690e-02</internalNodes>
          <leafValues>
            -9.7038501501083374e-01 4.2857143282890320e-01</leafValues></_>
        <_>
          <internalNodes>
            0 -1 24 -1.1710327118635178e-02</internalNodes>
          <leafValues>
            8.4135609865188599e-01 -8.5529655218124390e-01</leafValues></_>
        <_>
          <internalNodes>
            0 -1 21 8.4374826401472092e-03</internalNodes>
          <leafValues>
            -6.7380380630493164e-01 6.9623386859893799e-01</leafValues></_>
        <_>
          <internalNodes>
            0 -1 34 2.1014822646975517e-02</internalNodes>
          <leafValues>
            -4.8122859001159668e-01 8.4976661205291748e-01</leafValues></_></weakClassifiers></_>
    <!-- stage 4 -->
    <_>
      <maxWeakCount>3</maxWeakCount>
      <stageThreshold>-1.6585510969161987e+00</stageThreshold>
      <weakClassifiers>
        <_>
          <internalNodes>
            0 -1 10 -1.8088553845882416e-01</internalNodes>
          <leafValues>
            7.1428573131561279e-01 -9.7235929965972900e-01</leafValues></_>
        <_>
          <internalNodes>
            0 -1 35 3.9745159447193146e-02</internalNodes>
          <leafValues>
            -8.8264942169189453e-01 2.9966732859611511e-01</leafValues></_>
        <_>
          <internalNodes>
            0 -1 8 2.3282293230295181e-02</internalNodes>
          <leafValues>
            -8.9332312345504761e-01 1.9645760953426361e-01</leafValues></_></weakClassifiers></_>
    <!-- stage 5 -->
    <_>
      <maxWeakCount>3</maxWeakCount>
      <stageThreshold>-1.6963011026382446e+00</stageThreshold>
      <weakClassifiers>
        <_>
          <internalNodes>
            0 -1 2 -2.8541016578674316e-01</internalNodes>
          <leafValues>
            1. -9.6850395202636719e-01</leafValues></_>
        <_>
          <internalNodes>
            0 -1 31 2.5472646579146385e-02</internalNodes>
          <leafValues>
            -8.6901843547821045e-01 6.1261153221130371e-01</leafValues></_>
        <_>
          <internalNodes>
            0 -1 12 2.6471759192645550e-03</internalNodes>
          <leafValues>
            1.4122131466865540e-01 -8.9841616153717041e-01</leafValues></_></weakClassifiers></_>
    <!-- stage 6 -->
    <_>
      <maxWeakCount>4</maxWeakCount>
      <stageThreshold>-2.1687352657318115e+00</stageThreshold>
      <weakClassifiers>
        <_>
          <internalNodes>
            0 -1 4 -1.2773483991622925e-01</internalNodes>
          <leafValues>
            1. -9.6850395202636719e-01</leafValues></_>
        <_>
          <internalNodes>
            0 -1 17 2.0119929686188698e-02</internalNodes>
          <leafValues>
            -9.0104436874389648e-01 -3.5215515643358231e-02</leafValues></_>
        <_>
          <internalNodes>
            0 -1 26 4.9161887727677822e-03</internalNodes>
          <leafValues>
            -6.1459469795227051e-01 6.4991354942321777e-01</leafValues></_>
        <_>
          <internalNodes>
            0 -1 6 2.1842541173100471e-03</internalNodes>
          <leafValues>
            -1. 3.1540766358375549e-01</leafValues></_></weakClassifiers></_>
    <!-- stage 7 -->
    <_>
      <maxWeakCount>4</maxWeakCount>
      <stageThreshold>-1.9548622369766235e+00</stageThreshold>
      <weakClassifiers>
        <_>
          <internalNodes>
            0 -1 0 3.3241802453994751e-01</internalNodes>
          <leafValues>
            -9.6850395202636719e-01 1.</leafValues></_>
        <_>
          <internalNodes>
            0 -1 18 2.5905553251504898e-02</internalNodes>
          <leafValues>
            -8.4600210189819336e-01 8.6555457115173340e-01</leafValues></_>
        <_>
          <internalNodes>
            0 -1 25 -3.1808866187930107e-03</internalNodes>
          <leafValues>
            4.5357540249824524e-01 -7.2831821441650391e-01</leafValues></_>
        <_>
          <internalNodes>
            0 -1 22 1.8013226799666882e-03</internalNodes>
          <leafValues>
            -5.9393161535263062e-01 5.8857005834579468e-01</leafValues></_></weakClassifiers></_>
    <!-- stage 8 -->
    <_>
      <maxWeakCount>4</maxWeakCount>
      <stageThreshold>-2.1864342689514160e+00</stageThreshold>
      <weakClassifiers>
        <_>
          <internalNodes>
            0 -1 15 2.4124416708946228e-01</internalNodes>
          <leafValues>
            -9.7041422128677368e-01 6.6666668653488159e-01</leafValues></_>
        <_>
          <internalNodes>
            0 -1 7 1.1415658146142960e-01</internalNodes>
          <leafValues>
            -8.5696673393249512e-01 4.8742690682411194e-01</leafValues></_>
        <_>
          <internalNodes>
            0 -1 9 3.5953525453805923e-02</internalNodes>
          <leafValues>
            -6.5990650653839111e-01 5.0695091485977173e-01</leafValues></_>
        <_>
          <internalNodes>
            0 -1 40 -1.3859072350896895e-04</internalNodes>
          <leafValues>
            3.0085313320159912e-01 -9.2167586088180542e-01</leafValues></_></weakClassifiers></_>
    <!-- stage 9 -->
    <_>
      <maxWeakCount>4</maxWeakCount>
      <stageThreshold>-1.8247001171112061e+00</stageThreshold>
      <weakClassifiers>
        <_>
          <internalNodes>
            0 -1 29 2.4433127045631409e-01</internalNodes>
          <leafValues>
            -9.6850395202636719e-01 1.</leafValues></_>
        <_>
          <internalNodes>
            0 -1 5 -3.9440169930458069e-02</internalNodes>
          <leafValues>
            4.4471210241317749e-01 -8.6827236413955688e-01</leafValues></_>
        <_>
          <internalNodes>
            0 -1 39 -1.8590409308671951e-02</internalNodes>
          <leafValues>
            5.7227474451065063e-01 -6.8230825662612915e-01</leafValues></_>
        <_>
          <internalNodes>
            0 -1 13 2.5808271020650864e-02</internalNodes>
          <leafValues>
            -5.6019860506057739e-01 7.5061762332916260e-01</leafValues></_></weakClassifiers></_>
    <!-- stage 10 -->
    <_>
      <maxWeakCount>5</maxWeakCount>
      <stageThreshold>-1.8524547815322876e+00</stageThreshold>
      <weakClassifiers>
        <_>
          <internalNodes>
            0 -1 1 -1.2082542479038239e-01</internalNodes>
          <leafValues>
            5.0000000000000000e-01 -9.7233200073242188e-01</leafValues></_>
        <_>
          <internalNodes>
            0 -1 38 1.1940128169953823e-02</internalNodes>
          <leafValues>
            -8.6418336629867554e-01 5.2128553390502930e-01</leafValues></_>
        <_>
          <internalNodes>
            0 -1 37 6.1974208801984787e-03</internalNodes>
          <leafValues>
            -6.5047568082809448e-01 7.2035521268844604e-01</leafValues></_>
        <_>
          <internalNodes>
            0 -1 19 -1.7412417219020426e-04</internalNodes>
          <leafValues>
            2.9185962677001953e-01 -9.7034126520156860e-01</leafValues></_>
        <_>
          <internalNodes>
            0 -1 33 -6.1250305734574795e-03</internalNodes>
          <leafValues>
            3.4267657995223999e-01 -7.7649736404418945e-01</leafValues></_></weakClassifiers></_></stages>
  <features>
    <_>
      <rects>
        <_>
          0 0 30 20 -1.</_>
        <_>
          0 0 15 10 2.</_>
        <_>
          15 10 15 10 2.</_></rects>
      <tilted>0</tilted></_>
    <_>
      <rects>
        <_>
          0 0 32 3 -1.</_>
        <_>
          16 0 16 3 2.</_></rects>
      <tilted>0</tilted></_>
    <_>
      <rects>
        <_>
          0 0 32 7 -1.</_>
        <_>
          16 0 16 7 2.</_></rects>
      <tilted>0</tilted></_>
    <_>
      <rects>
        <_>
          0 2 30 30 -1.</_>
        <_>
          0 12 30 10 3.</_></rects>
      <tilted>0</tilted></_>
    <_>
      <rects>
        <_>
          0 5 32 3 -1.</_>
        <_>
          16 5 16 3 2.</_></rects>
      <tilted>0</tilted></_>
    <_>
      <rects>
        <_>
          0 21 22 8 -1.</_>
        <_>
          0 21 11 4 2.</_>
        <_>
          11 25 11 4 2.</_></rects>
      <tilted>0</tilted></_>
    <_>
      <rects>
        <_>
          1 3 1 27 -1.</_>
        <_>
          1 12 1 9 3.</_></rects>
      <tilted>0</tilted></_>
    <_>
      <rects>
        <_>
          1 4 26 12 -1.</_>
        <_>
          1 8 26 4 3.</_></rects>
      <tilted>0</tilted></_>
    <_>
      <rects>
        <_>
          1 20 14 12 -1.</_>
        <_>
          8 20 7 12 2.</_></rects>
      <tilted>0</tilted></_>
    <_>
      <rects>
        <_>
          1 20 18 5 -1.</_>
        <_>
          10 20 9 5 2.</_></rects>
      <tilted>0</tilted></_>
    <_>
      <rects>
        <_>
          2 0 30 5 -1.</_>
        <_>
          17 0 15 5 2.</_></rects>
      <tilted>0</tilted></_>
    <_>
      <rects>
        <_>
          3 11 23 3 -1.</_>
        <_>
          3 12 23 1 3.</_></rects>
      <tilted>0</tilted></_>
    <_>
      <rects>
        <_>
          3 21 10 3 -1.</_>
        <_>
          8 21 5 3 2.</_></rects>
      <tilted>0</tilted></_>
    <_>
      <rects>
        <_>
          4 10 24 6 -1.</_>
        <_>
          4 12 24 2 3.</_></rects>
      <tilted>0</tilted></_>
    <_>
      <rects>
        <_>
          5 1 18 20 -1.</_>
        <_>
          11 1 6 20 3.</_></rects>
      <tilted>0</tilted></_>
    <_>
      <rects>
        <_>
          5 5 26 12 -1.</_>
        <_>
          5 11 26 6 2.</_></rects>
      <tilted>0</tilted></_>
    <_>
      <rects>
        <_>
          6 12 26 6 -1.</_>
        <_>
          6 14 26 2 3.</_></rects>
      <tilted>0</tilted></_>
    <_>
      <rects>
        <_>
          7 5 8 8 -1.</_>
        <_>
          7 9 8 4 2.</_></rects>
      <tilted>0</tilted></_>
    <_>
      <rects>
        <_>
          8 21 10 4 -1.</_>
        <_>
          8 21 5 2 2.</_>
        <_>
          13 23 5 2 2.</_></rects>
      <tilted>0</tilted></_>
    <_>
      <rects>
        <_>
          9 6 2 6 -1.</_>
        <_>
          9 6 1 3 2.</_>
        <_>
          10 9 1 3 2.</_></rects>
      <tilted>0</tilted></_>
    <_>
      <rects>
        <_>
          9 17 12 9 -1.</_>
        <_>
          9 20 12 3 3.</_></rects>
      <tilted>0</tilted></_>
    <_>
      <rects>
        <_>
          10 13 10 2 -1.</_>
        <_>
          10 14 10 1 2.</_></rects>
      <tilted>0</tilted></_>
    <_>
      <rects>
        <_>
          10 15 6 2 -1.</_>
        <_>
          10 15 3 1 2.</_>
        <_>
          13 16 3 1 2.</_></rects>
      <tilted>0</tilted></_>
    <_>
      <rects>
        <_>
          11 22 11 3 -1.</_>
        <_>
          11 23 11 1 3.</_></rects>
      <tilted>0</tilted></_>
    <_>
      <rects>
        <_>
          12 5 1 9 -1.</_>
        <_>
          12 8 1 3 3.</_></rects>
      <tilted>0</tilted></_>
    <_>
      <rects>
        <_>
          12 7 2 16 -1.</_>
        <_>
          12 7 1 8 2.</_>
        <_>
          13 15 1 8 2.</_></rects>
      <tilted>0</tilted></_>
    <_>
      <rects>
        <_>
          12 8 3 4 -1.</_>
        <_>
          13 8 1 4 3.</_></rects>
      <tilted>0</tilted></_>
    <_>
      <rects>
        <_>
          12 23 3 6 -1.</_>
        <_>
          12 25 3 2 3.</_></rects>
      <tilted>0</tilted></_>
    <_>
      <rects>
        <_>
          13 13 6 4 -1.</_>
        <_>
          16 13 3 4 2.</_></rects>
      <tilted>0</tilted></_>
    <_>
      <rects>
        <_>
          14 1 17 16 -1.</_>
        <_>
          14 9 17 8 2.</_></rects>
      <tilted>0</tilted></_>
    <_>
      <rects>
        <_>
          14 2 2 14 -1.</_>
        <_>
          14 2 1 7 2.</_>
        <_>
          15 9 1 7 2.</_></rects>
      <tilted>0</tilted></_>
    <_>
      <rects>
        <_>
          14 21 14 2 -1.</_>
        <_>
          21 21 7 2 2.</_></rects>
      <tilted>0</tilted></_>
    <_>
      <rects>
        <_>
          15 17 5 6 -1.</_>
        <_>
          15 20 5 3 2.</_></rects>
      <tilted>0</tilted></_>
    <_>
      <rects>
        <_>
          16 2 12 8 -1.</_>
        <_>
          22 2 6 8 2.</_></rects>
      <tilted>0</tilted></_>
    <_>
      <rects>
        <_>
          16 14 3 12 -1.</_>
        <_>
          16 18 3 4 3.</_></rects>
      <tilted>0</tilted></_>
    <_>
      <rects>
        <_>
          17 7 6 22 -1.</_>
        <_>
          17 7 3 11 2.</_>
        <_>
          20 18 3 11 2.</_></rects>
      <tilted>0</tilted></_>
    <_>
      <rects>
        <_>
          17 12 4 8 -1.</_>
        <_>
          17 12 2 4 2.</_>
        <_>
          19 16 2 4 2.</_></rects>
      <tilted>0</tilted></_>
    <_>
      <rects>
        <_>
          18 14 3 5 -1.</_>
        <_>
          19 14 1 5 3.</_></rects>
      <tilted>0</tilted></_>
    <_>
      <rects>
        <_>
          19 16 1 12 -1.</_>
        <_>
          19 20 1 4 3.</_></rects>
      <tilted>0</tilted></_>
    <_>
      <rects>
        <_>
          19 16 2 12 -1.</_>
        <_>
          19 20 2 4 3.</_></rects>
      <tilted>0</tilted></_>
    <_>
      <rects>
        <_>
          29 11 2 12 -1.</_>
        <_>
          30 11 1 12 2.</_></rects>
      <tilted>0</tilted></_></features></cascade>
</opencv_storage>
